digraph Tree {
node [shape=box] ;
0 [label="X[0] <= -0.187\ngini = 0.25\nsamples = 2630\nvalue = [2245, 385]"] ;
1 [label="X[8] <= 1.081\ngini = 0.012\nsamples = 1688\nvalue = [1678, 10]"] ;
0 -> 1 [labeldistance=2.5, labelangle=45, headlabel="True"] ;
2 [label="X[9] <= 3.243\ngini = 0.007\nsamples = 1684\nvalue = [1678, 6]"] ;
1 -> 2 ;
3 [label="X[11] <= 0.145\ngini = 0.006\nsamples = 1683\nvalue = [1678, 5]"] ;
2 -> 3 ;
4 [label="X[9] <= 0.238\ngini = 0.001\nsamples = 1641\nvalue = [1640, 1]"] ;
3 -> 4 ;
5 [label="gini = 0.0\nsamples = 1636\nvalue = [1636, 0]"] ;
4 -> 5 ;
6 [label="X[13] <= 0.702\ngini = 0.32\nsamples = 5\nvalue = [4, 1]"] ;
4 -> 6 ;
7 [label="gini = 0.0\nsamples = 3\nvalue = [3, 0]"] ;
6 -> 7 ;
8 [label="X[23] <= 1.979\ngini = 0.5\nsamples = 2\nvalue = [1, 1]"] ;
6 -> 8 ;
9 [label="gini = 0.0\nsamples = 1\nvalue = [0, 1]"] ;
8 -> 9 ;
10 [label="gini = 0.0\nsamples = 1\nvalue = [1, 0]"] ;
8 -> 10 ;
11 [label="X[21] <= 0.989\ngini = 0.172\nsamples = 42\nvalue = [38, 4]"] ;
3 -> 11 ;
12 [label="X[29] <= 0.646\ngini = 0.059\nsamples = 33\nvalue = [32, 1]"] ;
11 -> 12 ;
13 [label="gini = 0.0\nsamples = 28\nvalue = [28, 0]"] ;
12 -> 13 ;
14 [label="X[0] <= -0.475\ngini = 0.32\nsamples = 5\nvalue = [4, 1]"] ;
12 -> 14 ;
15 [label="X[5] <= -0.213\ngini = 0.5\nsamples = 2\nvalue = [1, 1]"] ;
14 -> 15 ;
16 [label="gini = 0.0\nsamples = 1\nvalue = [1, 0]"] ;
15 -> 16 ;
17 [label="gini = 0.0\nsamples = 1\nvalue = [0, 1]"] ;
15 -> 17 ;
18 [label="gini = 0.0\nsamples = 3\nvalue = [3, 0]"] ;
14 -> 18 ;
19 [label="X[27] <= 0.061\ngini = 0.444\nsamples = 9\nvalue = [6, 3]"] ;
11 -> 19 ;
20 [label="X[6] <= -0.124\ngini = 0.48\nsamples = 5\nvalue = [2, 3]"] ;
19 -> 20 ;
21 [label="gini = 0.0\nsamples = 2\nvalue = [0, 2]"] ;
20 -> 21 ;
22 [label="X[25] <= 0.17\ngini = 0.444\nsamples = 3\nvalue = [2, 1]"] ;
20 -> 22 ;
23 [label="gini = 0.0\nsamples = 2\nvalue = [2, 0]"] ;
22 -> 23 ;
24 [label="gini = 0.0\nsamples = 1\nvalue = [0, 1]"] ;
22 -> 24 ;
25 [label="gini = 0.0\nsamples = 4\nvalue = [4, 0]"] ;
19 -> 25 ;
26 [label="gini = 0.0\nsamples = 1\nvalue = [0, 1]"] ;
2 -> 26 ;
27 [label="gini = 0.0\nsamples = 4\nvalue = [0, 4]"] ;
1 -> 27 ;
28 [label="X[0] <= 1.539\ngini = 0.479\nsamples = 942\nvalue = [567, 375]"] ;
0 -> 28 [labeldistance=2.5, labelangle=-45, headlabel="False"] ;
29 [label="X[5] <= 0.11\ngini = 0.496\nsamples = 719\nvalue = [393, 326]"] ;
28 -> 29 ;
30 [label="X[8] <= 1.081\ngini = 0.475\nsamples = 391\nvalue = [239, 152]"] ;
29 -> 30 ;
31 [label="X[28] <= 2.957\ngini = 0.409\nsamples = 275\nvalue = [196, 79]"] ;
30 -> 31 ;
32 [label="X[13] <= 0.702\ngini = 0.394\nsamples = 267\nvalue = [195, 72]"] ;
31 -> 32 ;
33 [label="X[67] <= 4.539\ngini = 0.435\nsamples = 194\nvalue = [132, 62]"] ;
32 -> 33 ;
34 [label="X[29] <= 0.646\ngini = 0.427\nsamples = 191\nvalue = [132, 59]"] ;
33 -> 34 ;
35 [label="X[5] <= -1.181\ngini = 0.403\nsamples = 168\nvalue = [121, 47]"] ;
34 -> 35 ;
36 [label="X[22] <= 1.639\ngini = 0.285\nsamples = 64\nvalue = [53, 11]"] ;
35 -> 36 ;
37 [label="X[82] <= 8.457\ngini = 0.231\nsamples = 60\nvalue = [52, 8]"] ;
36 -> 37 ;
38 [label="X[56] <= 4.081\ngini = 0.185\nsamples = 58\nvalue = [52, 6]"] ;
37 -> 38 ;
39 [label="X[6] <= 0.204\ngini = 0.135\nsamples = 55\nvalue = [51, 4]"] ;
38 -> 39 ;
40 [label="X[69] <= 6.978\ngini = 0.105\nsamples = 54\nvalue = [51, 3]"] ;
39 -> 40 ;
41 [label="X[0] <= 0.1\ngini = 0.073\nsamples = 53\nvalue = [51, 2]"] ;
40 -> 41 ;
42 [label="X[9] <= 0.238\ngini = 0.32\nsamples = 5\nvalue = [4, 1]"] ;
41 -> 42 ;
43 [label="gini = 0.0\nsamples = 1\nvalue = [0, 1]"] ;
42 -> 43 ;
44 [label="gini = 0.0\nsamples = 4\nvalue = [4, 0]"] ;
42 -> 44 ;
45 [label="X[41] <= 2.218\ngini = 0.041\nsamples = 48\nvalue = [47, 1]"] ;
41 -> 45 ;
46 [label="gini = 0.0\nsamples = 42\nvalue = [42, 0]"] ;
45 -> 46 ;
47 [label="X[19] <= 1.599\ngini = 0.278\nsamples = 6\nvalue = [5, 1]"] ;
45 -> 47 ;
48 [label="gini = 0.0\nsamples = 4\nvalue = [4, 0]"] ;
47 -> 48 ;
49 [label="X[4] <= -0.818\ngini = 0.5\nsamples = 2\nvalue = [1, 1]"] ;
47 -> 49 ;
50 [label="gini = 0.0\nsamples = 1\nvalue = [0, 1]"] ;
49 -> 50 ;
51 [label="gini = 0.0\nsamples = 1\nvalue = [1, 0]"] ;
49 -> 51 ;
52 [label="gini = 0.0\nsamples = 1\nvalue = [0, 1]"] ;
40 -> 52 ;
53 [label="gini = 0.0\nsamples = 1\nvalue = [0, 1]"] ;
39 -> 53 ;
54 [label="X[27] <= 0.061\ngini = 0.444\nsamples = 3\nvalue = [1, 2]"] ;
38 -> 54 ;
55 [label="gini = 0.0\nsamples = 1\nvalue = [1, 0]"] ;
54 -> 55 ;
56 [label="gini = 0.0\nsamples = 2\nvalue = [0, 2]"] ;
54 -> 56 ;
57 [label="gini = 0.0\nsamples = 2\nvalue = [0, 2]"] ;
37 -> 57 ;
58 [label="X[7] <= 2.501\ngini = 0.375\nsamples = 4\nvalue = [1, 3]"] ;
36 -> 58 ;
59 [label="gini = 0.0\nsamples = 3\nvalue = [0, 3]"] ;
58 -> 59 ;
60 [label="gini = 0.0\nsamples = 1\nvalue = [1, 0]"] ;
58 -> 60 ;
61 [label="X[24] <= 1.581\ngini = 0.453\nsamples = 104\nvalue = [68, 36]"] ;
35 -> 61 ;
62 [label="X[32] <= 1.187\ngini = 0.435\nsamples = 97\nvalue = [66, 31]"] ;
61 -> 62 ;
63 [label="X[17] <= 0.106\ngini = 0.42\nsamples = 90\nvalue = [63, 27]"] ;
62 -> 63 ;
64 [label="X[34] <= 1.928\ngini = 0.464\nsamples = 63\nvalue = [40, 23]"] ;
63 -> 64 ;
65 [label="X[41] <= 2.218\ngini = 0.441\nsamples = 58\nvalue = [39, 19]"] ;
64 -> 65 ;
66 [label="X[11] <= 0.145\ngini = 0.417\nsamples = 54\nvalue = [38, 16]"] ;
65 -> 66 ;
67 [label="gini = 0.0\nsamples = 10\nvalue = [10, 0]"] ;
66 -> 67 ;
68 [label="X[26] <= 0.224\ngini = 0.463\nsamples = 44\nvalue = [28, 16]"] ;
66 -> 68 ;
69 [label="X[23] <= 1.979\ngini = 0.476\nsamples = 41\nvalue = [25, 16]"] ;
68 -> 69 ;
70 [label="X[49] <= 6.632\ngini = 0.488\nsamples = 38\nvalue = [22, 16]"] ;
69 -> 70 ;
71 [label="X[6] <= -0.124\ngini = 0.494\nsamples = 36\nvalue = [20, 16]"] ;
70 -> 71 ;
72 [label="X[0] <= 0.1\ngini = 0.482\nsamples = 32\nvalue = [19, 13]"] ;
71 -> 72 ;
73 [label="gini = 0.0\nsamples = 2\nvalue = [0, 2]"] ;
72 -> 73 ;
74 [label="X[35] <= 3.733\ngini = 0.464\nsamples = 30\nvalue = [19, 11]"] ;
72 -> 74 ;
75 [label="X[18] <= -0.048\ngini = 0.426\nsamples = 26\nvalue = [18, 8]"] ;
74 -> 75 ;
76 [label="X[86] <= 7.173\ngini = 0.403\nsamples = 25\nvalue = [18, 7]"] ;
75 -> 76 ;
77 [label="X[0] <= 1.251\ngini = 0.351\nsamples = 22\nvalue = [17, 5]"] ;
76 -> 77 ;
78 [label="X[6] <= -0.781\ngini = 0.266\nsamples = 19\nvalue = [16, 3]"] ;
77 -> 78 ;
79 [label="X[71] <= 5.437\ngini = 0.397\nsamples = 11\nvalue = [8, 3]"] ;
78 -> 79 ;
80 [label="X[25] <= -0.502\ngini = 0.32\nsamples = 10\nvalue = [8, 2]"] ;
79 -> 80 ;
81 [label="X[31] <= 2.174\ngini = 0.48\nsamples = 5\nvalue = [3, 2]"] ;
80 -> 81 ;
82 [label="X[22] <= 1.639\ngini = 0.444\nsamples = 3\nvalue = [1, 2]"] ;
81 -> 82 ;
83 [label="gini = 0.0\nsamples = 2\nvalue = [0, 2]"] ;
82 -> 83 ;
84 [label="gini = 0.0\nsamples = 1\nvalue = [1, 0]"] ;
82 -> 84 ;
85 [label="gini = 0.0\nsamples = 2\nvalue = [2, 0]"] ;
81 -> 85 ;
86 [label="gini = 0.0\nsamples = 5\nvalue = [5, 0]"] ;
80 -> 86 ;
87 [label="gini = 0.0\nsamples = 1\nvalue = [0, 1]"] ;
79 -> 87 ;
88 [label="gini = 0.0\nsamples = 8\nvalue = [8, 0]"] ;
78 -> 88 ;
89 [label="X[5] <= -0.213\ngini = 0.444\nsamples = 3\nvalue = [1, 2]"] ;
77 -> 89 ;
90 [label="gini = 0.0\nsamples = 2\nvalue = [0, 2]"] ;
89 -> 90 ;
91 [label="gini = 0.0\nsamples = 1\nvalue = [1, 0]"] ;
89 -> 91 ;
92 [label="X[25] <= 0.842\ngini = 0.444\nsamples = 3\nvalue = [1, 2]"] ;
76 -> 92 ;
93 [label="gini = 0.0\nsamples = 2\nvalue = [0, 2]"] ;
92 -> 93 ;
94 [label="gini = 0.0\nsamples = 1\nvalue = [1, 0]"] ;
92 -> 94 ;
95 [label="gini = 0.0\nsamples = 1\nvalue = [0, 1]"] ;
75 -> 95 ;
96 [label="X[6] <= -0.781\ngini = 0.375\nsamples = 4\nvalue = [1, 3]"] ;
74 -> 96 ;
97 [label="gini = 0.0\nsamples = 2\nvalue = [0, 2]"] ;
96 -> 97 ;
98 [label="X[11] <= 1.56\ngini = 0.5\nsamples = 2\nvalue = [1, 1]"] ;
96 -> 98 ;
99 [label="gini = 0.0\nsamples = 1\nvalue = [1, 0]"] ;
98 -> 99 ;
100 [label="gini = 0.0\nsamples = 1\nvalue = [0, 1]"] ;
98 -> 100 ;
101 [label="X[35] <= 3.733\ngini = 0.375\nsamples = 4\nvalue = [1, 3]"] ;
71 -> 101 ;
102 [label="gini = 0.0\nsamples = 3\nvalue = [0, 3]"] ;
101 -> 102 ;
103 [label="gini = 0.0\nsamples = 1\nvalue = [1, 0]"] ;
101 -> 103 ;
104 [label="gini = 0.0\nsamples = 2\nvalue = [2, 0]"] ;
70 -> 104 ;
105 [label="gini = 0.0\nsamples = 3\nvalue = [3, 0]"] ;
69 -> 105 ;
106 [label="gini = 0.0\nsamples = 3\nvalue = [3, 0]"] ;
68 -> 106 ;
107 [label="X[16] <= -0.707\ngini = 0.375\nsamples = 4\nvalue = [1, 3]"] ;
65 -> 107 ;
108 [label="gini = 0.0\nsamples = 1\nvalue = [1, 0]"] ;
107 -> 108 ;
109 [label="gini = 0.0\nsamples = 3\nvalue = [0, 3]"] ;
107 -> 109 ;
110 [label="X[9] <= 1.741\ngini = 0.32\nsamples = 5\nvalue = [1, 4]"] ;
64 -> 110 ;
111 [label="gini = 0.0\nsamples = 4\nvalue = [0, 4]"] ;
110 -> 111 ;
112 [label="gini = 0.0\nsamples = 1\nvalue = [1, 0]"] ;
110 -> 112 ;
113 [label="X[11] <= 0.145\ngini = 0.252\nsamples = 27\nvalue = [23, 4]"] ;
63 -> 113 ;
114 [label="gini = 0.0\nsamples = 2\nvalue = [0, 2]"] ;
113 -> 114 ;
115 [label="X[38] <= 2.738\ngini = 0.147\nsamples = 25\nvalue = [23, 2]"] ;
113 -> 115 ;
116 [label="X[45] <= 1.55\ngini = 0.08\nsamples = 24\nvalue = [23, 1]"] ;
115 -> 116 ;
117 [label="gini = 0.0\nsamples = 22\nvalue = [22, 0]"] ;
116 -> 117 ;
118 [label="X[9] <= 0.238\ngini = 0.5\nsamples = 2\nvalue = [1, 1]"] ;
116 -> 118 ;
119 [label="gini = 0.0\nsamples = 1\nvalue = [1, 0]"] ;
118 -> 119 ;
120 [label="gini = 0.0\nsamples = 1\nvalue = [0, 1]"] ;
118 -> 120 ;
121 [label="gini = 0.0\nsamples = 1\nvalue = [0, 1]"] ;
115 -> 121 ;
122 [label="X[5] <= -0.535\ngini = 0.49\nsamples = 7\nvalue = [3, 4]"] ;
62 -> 122 ;
123 [label="gini = 0.0\nsamples = 2\nvalue = [0, 2]"] ;
122 -> 123 ;
124 [label="X[9] <= 0.238\ngini = 0.48\nsamples = 5\nvalue = [3, 2]"] ;
122 -> 124 ;
125 [label="X[19] <= 1.599\ngini = 0.444\nsamples = 3\nvalue = [1, 2]"] ;
124 -> 125 ;
126 [label="X[6] <= -0.124\ngini = 0.5\nsamples = 2\nvalue = [1, 1]"] ;
125 -> 126 ;
127 [label="gini = 0.0\nsamples = 1\nvalue = [1, 0]"] ;
126 -> 127 ;
128 [label="gini = 0.0\nsamples = 1\nvalue = [0, 1]"] ;
126 -> 128 ;
129 [label="gini = 0.0\nsamples = 1\nvalue = [0, 1]"] ;
125 -> 129 ;
130 [label="gini = 0.0\nsamples = 2\nvalue = [2, 0]"] ;
124 -> 130 ;
131 [label="X[0] <= 0.244\ngini = 0.408\nsamples = 7\nvalue = [2, 5]"] ;
61 -> 131 ;
132 [label="gini = 0.0\nsamples = 2\nvalue = [2, 0]"] ;
131 -> 132 ;
133 [label="gini = 0.0\nsamples = 5\nvalue = [0, 5]"] ;
131 -> 133 ;
134 [label="X[0] <= 0.819\ngini = 0.499\nsamples = 23\nvalue = [11, 12]"] ;
34 -> 134 ;
135 [label="X[17] <= 0.106\ngini = 0.488\nsamples = 19\nvalue = [11, 8]"] ;
134 -> 135 ;
136 [label="X[5] <= -0.213\ngini = 0.32\nsamples = 10\nvalue = [8, 2]"] ;
135 -> 136 ;
137 [label="gini = 0.0\nsamples = 7\nvalue = [7, 0]"] ;
136 -> 137 ;
138 [label="X[4] <= -0.152\ngini = 0.444\nsamples = 3\nvalue = [1, 2]"] ;
136 -> 138 ;
139 [label="gini = 0.0\nsamples = 2\nvalue = [0, 2]"] ;
138 -> 139 ;
140 [label="gini = 0.0\nsamples = 1\nvalue = [1, 0]"] ;
138 -> 140 ;
141 [label="X[16] <= -0.707\ngini = 0.444\nsamples = 9\nvalue = [3, 6]"] ;
135 -> 141 ;
142 [label="gini = 0.0\nsamples = 1\nvalue = [1, 0]"] ;
141 -> 142 ;
143 [label="X[11] <= 1.56\ngini = 0.375\nsamples = 8\nvalue = [2, 6]"] ;
141 -> 143 ;
144 [label="gini = 0.0\nsamples = 5\nvalue = [0, 5]"] ;
143 -> 144 ;
145 [label="X[0] <= 0.388\ngini = 0.444\nsamples = 3\nvalue = [2, 1]"] ;
143 -> 145 ;
146 [label="gini = 0.0\nsamples = 1\nvalue = [0, 1]"] ;
145 -> 146 ;
147 [label="gini = 0.0\nsamples = 2\nvalue = [2, 0]"] ;
145 -> 147 ;
148 [label="gini = 0.0\nsamples = 4\nvalue = [0, 4]"] ;
134 -> 148 ;
149 [label="gini = 0.0\nsamples = 3\nvalue = [0, 3]"] ;
33 -> 149 ;
150 [label="X[59] <= 13.68\ngini = 0.236\nsamples = 73\nvalue = [63, 10]"] ;
32 -> 150 ;
151 [label="X[56] <= 4.081\ngini = 0.219\nsamples = 72\nvalue = [63, 9]"] ;
150 -> 151 ;
152 [label="X[9] <= 0.238\ngini = 0.2\nsamples = 71\nvalue = [63, 8]"] ;
151 -> 152 ;
153 [label="X[0] <= 0.963\ngini = 0.375\nsamples = 20\nvalue = [15, 5]"] ;
152 -> 153 ;
154 [label="X[26] <= 0.224\ngini = 0.142\nsamples = 13\nvalue = [12, 1]"] ;
153 -> 154 ;
155 [label="gini = 0.0\nsamples = 10\nvalue = [10, 0]"] ;
154 -> 155 ;
156 [label="X[25] <= -0.502\ngini = 0.444\nsamples = 3\nvalue = [2, 1]"] ;
154 -> 156 ;
157 [label="gini = 0.0\nsamples = 1\nvalue = [1, 0]"] ;
156 -> 157 ;
158 [label="X[6] <= -0.124\ngini = 0.5\nsamples = 2\nvalue = [1, 1]"] ;
156 -> 158 ;
159 [label="gini = 0.0\nsamples = 1\nvalue = [0, 1]"] ;
158 -> 159 ;
160 [label="gini = 0.0\nsamples = 1\nvalue = [1, 0]"] ;
158 -> 160 ;
161 [label="X[17] <= 0.106\ngini = 0.49\nsamples = 7\nvalue = [3, 4]"] ;
153 -> 161 ;
162 [label="X[21] <= 0.989\ngini = 0.375\nsamples = 4\nvalue = [3, 1]"] ;
161 -> 162 ;
163 [label="gini = 0.0\nsamples = 3\nvalue = [3, 0]"] ;
162 -> 163 ;
164 [label="gini = 0.0\nsamples = 1\nvalue = [0, 1]"] ;
162 -> 164 ;
165 [label="gini = 0.0\nsamples = 3\nvalue = [0, 3]"] ;
161 -> 165 ;
166 [label="X[0] <= 0.388\ngini = 0.111\nsamples = 51\nvalue = [48, 3]"] ;
152 -> 166 ;
167 [label="X[5] <= -1.02\ngini = 0.48\nsamples = 5\nvalue = [3, 2]"] ;
166 -> 167 ;
168 [label="gini = 0.0\nsamples = 2\nvalue = [2, 0]"] ;
167 -> 168 ;
169 [label="X[21] <= 0.989\ngini = 0.444\nsamples = 3\nvalue = [1, 2]"] ;
167 -> 169 ;
170 [label="gini = 0.0\nsamples = 2\nvalue = [0, 2]"] ;
169 -> 170 ;
171 [label="gini = 0.0\nsamples = 1\nvalue = [1, 0]"] ;
169 -> 171 ;
172 [label="X[29] <= 0.646\ngini = 0.043\nsamples = 46\nvalue = [45, 1]"] ;
166 -> 172 ;
173 [label="gini = 0.0\nsamples = 42\nvalue = [42, 0]"] ;
172 -> 173 ;
174 [label="X[5] <= -0.697\ngini = 0.375\nsamples = 4\nvalue = [3, 1]"] ;
172 -> 174 ;
175 [label="gini = 0.0\nsamples = 3\nvalue = [3, 0]"] ;
174 -> 175 ;
176 [label="gini = 0.0\nsamples = 1\nvalue = [0, 1]"] ;
174 -> 176 ;
177 [label="gini = 0.0\nsamples = 1\nvalue = [0, 1]"] ;
151 -> 177 ;
178 [label="gini = 0.0\nsamples = 1\nvalue = [0, 1]"] ;
150 -> 178 ;
179 [label="X[37] <= 7.614\ngini = 0.219\nsamples = 8\nvalue = [1, 7]"] ;
31 -> 179 ;
180 [label="gini = 0.0\nsamples = 7\nvalue = [0, 7]"] ;
179 -> 180 ;
181 [label="gini = 0.0\nsamples = 1\nvalue = [1, 0]"] ;
179 -> 181 ;
182 [label="X[4] <= -0.818\ngini = 0.467\nsamples = 116\nvalue = [43, 73]"] ;
30 -> 182 ;
183 [label="X[10] <= 9.008\ngini = 0.365\nsamples = 75\nvalue = [18, 57]"] ;
182 -> 183 ;
184 [label="X[19] <= 1.599\ngini = 0.342\nsamples = 73\nvalue = [16, 57]"] ;
183 -> 184 ;
185 [label="X[82] <= 8.457\ngini = 0.301\nsamples = 65\nvalue = [12, 53]"] ;
184 -> 185 ;
186 [label="X[68] <= 10.18\ngini = 0.285\nsamples = 64\nvalue = [11, 53]"] ;
185 -> 186 ;
187 [label="X[39] <= 3.317\ngini = 0.267\nsamples = 63\nvalue = [10, 53]"] ;
186 -> 187 ;
188 [label="X[20] <= 2.039\ngini = 0.248\nsamples = 62\nvalue = [9, 53]"] ;
187 -> 188 ;
189 [label="X[9] <= 0.238\ngini = 0.215\nsamples = 57\nvalue = [7, 50]"] ;
188 -> 189 ;
190 [label="X[17] <= 0.106\ngini = 0.34\nsamples = 23\nvalue = [5, 18]"] ;
189 -> 190 ;
191 [label="X[25] <= 0.17\ngini = 0.494\nsamples = 9\nvalue = [4, 5]"] ;
190 -> 191 ;
192 [label="X[16] <= -0.707\ngini = 0.444\nsamples = 6\nvalue = [4, 2]"] ;
191 -> 192 ;
193 [label="gini = 0.0\nsamples = 2\nvalue = [0, 2]"] ;
192 -> 193 ;
194 [label="gini = 0.0\nsamples = 4\nvalue = [4, 0]"] ;
192 -> 194 ;
195 [label="gini = 0.0\nsamples = 3\nvalue = [0, 3]"] ;
191 -> 195 ;
196 [label="X[31] <= 2.174\ngini = 0.133\nsamples = 14\nvalue = [1, 13]"] ;
190 -> 196 ;
197 [label="gini = 0.0\nsamples = 13\nvalue = [0, 13]"] ;
196 -> 197 ;
198 [label="gini = 0.0\nsamples = 1\nvalue = [1, 0]"] ;
196 -> 198 ;
199 [label="X[32] <= 1.187\ngini = 0.111\nsamples = 34\nvalue = [2, 32]"] ;
189 -> 199 ;
200 [label="X[56] <= 4.081\ngini = 0.059\nsamples = 33\nvalue = [1, 32]"] ;
199 -> 200 ;
201 [label="gini = 0.0\nsamples = 29\nvalue = [0, 29]"] ;
200 -> 201 ;
202 [label="X[13] <= 0.702\ngini = 0.375\nsamples = 4\nvalue = [1, 3]"] ;
200 -> 202 ;
203 [label="gini = 0.0\nsamples = 1\nvalue = [1, 0]"] ;
202 -> 203 ;
204 [label="gini = 0.0\nsamples = 3\nvalue = [0, 3]"] ;
202 -> 204 ;
205 [label="gini = 0.0\nsamples = 1\nvalue = [1, 0]"] ;
199 -> 205 ;
206 [label="X[9] <= 0.238\ngini = 0.48\nsamples = 5\nvalue = [2, 3]"] ;
188 -> 206 ;
207 [label="gini = 0.0\nsamples = 2\nvalue = [0, 2]"] ;
206 -> 207 ;
208 [label="X[0] <= 0.676\ngini = 0.444\nsamples = 3\nvalue = [2, 1]"] ;
206 -> 208 ;
209 [label="gini = 0.0\nsamples = 2\nvalue = [2, 0]"] ;
208 -> 209 ;
210 [label="gini = 0.0\nsamples = 1\nvalue = [0, 1]"] ;
208 -> 210 ;
211 [label="gini = 0.0\nsamples = 1\nvalue = [1, 0]"] ;
187 -> 211 ;
212 [label="gini = 0.0\nsamples = 1\nvalue = [1, 0]"] ;
186 -> 212 ;
213 [label="gini = 0.0\nsamples = 1\nvalue = [1, 0]"] ;
185 -> 213 ;
214 [label="X[11] <= 0.145\ngini = 0.5\nsamples = 8\nvalue = [4, 4]"] ;
184 -> 214 ;
215 [label="gini = 0.0\nsamples = 2\nvalue = [2, 0]"] ;
214 -> 215 ;
216 [label="X[0] <= 1.251\ngini = 0.444\nsamples = 6\nvalue = [2, 4]"] ;
214 -> 216 ;
217 [label="X[34] <= 1.928\ngini = 0.32\nsamples = 5\nvalue = [1, 4]"] ;
216 -> 217 ;
218 [label="gini = 0.0\nsamples = 3\nvalue = [0, 3]"] ;
217 -> 218 ;
219 [label="X[16] <= -0.707\ngini = 0.5\nsamples = 2\nvalue = [1, 1]"] ;
217 -> 219 ;
220 [label="gini = 0.0\nsamples = 1\nvalue = [0, 1]"] ;
219 -> 220 ;
221 [label="gini = 0.0\nsamples = 1\nvalue = [1, 0]"] ;
219 -> 221 ;
222 [label="gini = 0.0\nsamples = 1\nvalue = [1, 0]"] ;
216 -> 222 ;
223 [label="gini = 0.0\nsamples = 2\nvalue = [2, 0]"] ;
183 -> 223 ;
224 [label="X[0] <= 0.676\ngini = 0.476\nsamples = 41\nvalue = [25, 16]"] ;
182 -> 224 ;
225 [label="X[27] <= 0.061\ngini = 0.415\nsamples = 17\nvalue = [5, 12]"] ;
224 -> 225 ;
226 [label="X[25] <= 0.842\ngini = 0.32\nsamples = 5\nvalue = [4, 1]"] ;
225 -> 226 ;
227 [label="gini = 0.0\nsamples = 4\nvalue = [4, 0]"] ;
226 -> 227 ;
228 [label="gini = 0.0\nsamples = 1\nvalue = [0, 1]"] ;
226 -> 228 ;
229 [label="X[40] <= 2.926\ngini = 0.153\nsamples = 12\nvalue = [1, 11]"] ;
225 -> 229 ;
230 [label="gini = 0.0\nsamples = 11\nvalue = [0, 11]"] ;
229 -> 230 ;
231 [label="gini = 0.0\nsamples = 1\nvalue = [1, 0]"] ;
229 -> 231 ;
232 [label="X[29] <= 0.646\ngini = 0.278\nsamples = 24\nvalue = [20, 4]"] ;
224 -> 232 ;
233 [label="X[16] <= -0.707\ngini = 0.227\nsamples = 23\nvalue = [20, 3]"] ;
232 -> 233 ;
234 [label="X[5] <= -1.181\ngini = 0.49\nsamples = 7\nvalue = [4, 3]"] ;
233 -> 234 ;
235 [label="gini = 0.0\nsamples = 3\nvalue = [3, 0]"] ;
234 -> 235 ;
236 [label="X[20] <= 2.039\ngini = 0.375\nsamples = 4\nvalue = [1, 3]"] ;
234 -> 236 ;
237 [label="gini = 0.0\nsamples = 3\nvalue = [0, 3]"] ;
236 -> 237 ;
238 [label="gini = 0.0\nsamples = 1\nvalue = [1, 0]"] ;
236 -> 238 ;
239 [label="gini = 0.0\nsamples = 16\nvalue = [16, 0]"] ;
233 -> 239 ;
240 [label="gini = 0.0\nsamples = 1\nvalue = [0, 1]"] ;
232 -> 240 ;
241 [label="X[60] <= 2.807\ngini = 0.498\nsamples = 328\nvalue = [154, 174]"] ;
29 -> 241 ;
242 [label="X[2] <= 1.109\ngini = 0.493\nsamples = 298\nvalue = [132, 166]"] ;
241 -> 242 ;
243 [label="X[5] <= 1.401\ngini = 0.485\nsamples = 268\nvalue = [111, 157]"] ;
242 -> 243 ;
244 [label="X[30] <= 5.349\ngini = 0.496\nsamples = 209\nvalue = [95, 114]"] ;
243 -> 244 ;
245 [label="X[52] <= 4.897\ngini = 0.498\nsamples = 204\nvalue = [95, 109]"] ;
244 -> 245 ;
246 [label="X[8] <= 1.081\ngini = 0.499\nsamples = 200\nvalue = [95, 105]"] ;
245 -> 246 ;
247 [label="X[0] <= 0.1\ngini = 0.492\nsamples = 151\nvalue = [66, 85]"] ;
246 -> 247 ;
248 [label="X[6] <= 0.532\ngini = 0.36\nsamples = 17\nvalue = [13, 4]"] ;
247 -> 248 ;
249 [label="gini = 0.0\nsamples = 7\nvalue = [7, 0]"] ;
248 -> 249 ;
250 [label="X[18] <= -0.048\ngini = 0.48\nsamples = 10\nvalue = [6, 4]"] ;
248 -> 250 ;
251 [label="X[27] <= 0.061\ngini = 0.375\nsamples = 4\nvalue = [1, 3]"] ;
250 -> 251 ;
252 [label="gini = 0.0\nsamples = 3\nvalue = [0, 3]"] ;
251 -> 252 ;
253 [label="gini = 0.0\nsamples = 1\nvalue = [1, 0]"] ;
251 -> 253 ;
254 [label="X[5] <= 0.433\ngini = 0.278\nsamples = 6\nvalue = [5, 1]"] ;
250 -> 254 ;
255 [label="gini = 0.0\nsamples = 1\nvalue = [0, 1]"] ;
254 -> 255 ;
256 [label="gini = 0.0\nsamples = 5\nvalue = [5, 0]"] ;
254 -> 256 ;
257 [label="X[0] <= 0.388\ngini = 0.478\nsamples = 134\nvalue = [53, 81]"] ;
247 -> 257 ;
258 [label="X[29] <= 0.646\ngini = 0.165\nsamples = 11\nvalue = [1, 10]"] ;
257 -> 258 ;
259 [label="gini = 0.0\nsamples = 9\nvalue = [0, 9]"] ;
258 -> 259 ;
260 [label="X[11] <= 0.145\ngini = 0.5\nsamples = 2\nvalue = [1, 1]"] ;
258 -> 260 ;
261 [label="gini = 0.0\nsamples = 1\nvalue = [0, 1]"] ;
260 -> 261 ;
262 [label="gini = 0.0\nsamples = 1\nvalue = [1, 0]"] ;
260 -> 262 ;
263 [label="X[15] <= -2.85\ngini = 0.488\nsamples = 123\nvalue = [52, 71]"] ;
257 -> 263 ;
264 [label="gini = 0.0\nsamples = 3\nvalue = [3, 0]"] ;
263 -> 264 ;
265 [label="X[13] <= 0.702\ngini = 0.483\nsamples = 120\nvalue = [49, 71]"] ;
263 -> 265 ;
266 [label="X[31] <= 2.174\ngini = 0.47\nsamples = 106\nvalue = [40, 66]"] ;
265 -> 266 ;
267 [label="X[20] <= 2.039\ngini = 0.452\nsamples = 90\nvalue = [31, 59]"] ;
266 -> 267 ;
268 [label="X[23] <= 1.979\ngini = 0.442\nsamples = 88\nvalue = [29, 59]"] ;
267 -> 268 ;
269 [label="X[39] <= 3.317\ngini = 0.431\nsamples = 86\nvalue = [27, 59]"] ;
268 -> 269 ;
270 [label="X[16] <= -0.707\ngini = 0.414\nsamples = 82\nvalue = [24, 58]"] ;
269 -> 270 ;
271 [label="gini = 0.0\nsamples = 6\nvalue = [0, 6]"] ;
270 -> 271 ;
272 [label="X[27] <= 0.061\ngini = 0.432\nsamples = 76\nvalue = [24, 52]"] ;
270 -> 272 ;
273 [label="X[24] <= 1.581\ngini = 0.412\nsamples = 69\nvalue = [20, 49]"] ;
272 -> 273 ;
274 [label="X[9] <= 0.238\ngini = 0.379\nsamples = 59\nvalue = [15, 44]"] ;
273 -> 274 ;
275 [label="X[47] <= 3.828\ngini = 0.464\nsamples = 30\nvalue = [11, 19]"] ;
274 -> 275 ;
276 [label="X[80] <= 10.18\ngini = 0.452\nsamples = 29\nvalue = [10, 19]"] ;
275 -> 276 ;
277 [label="X[42] <= 3.733\ngini = 0.436\nsamples = 28\nvalue = [9, 19]"] ;
276 -> 277 ;
278 [label="X[40] <= 2.926\ngini = 0.417\nsamples = 27\nvalue = [8, 19]"] ;
277 -> 278 ;
279 [label="X[81] <= 6.799\ngini = 0.375\nsamples = 24\nvalue = [6, 18]"] ;
278 -> 279 ;
280 [label="X[11] <= 0.145\ngini = 0.308\nsamples = 21\nvalue = [4, 17]"] ;
279 -> 280 ;
281 [label="gini = 0.0\nsamples = 8\nvalue = [0, 8]"] ;
280 -> 281 ;
282 [label="X[25] <= 0.842\ngini = 0.426\nsamples = 13\nvalue = [4, 9]"] ;
280 -> 282 ;
283 [label="X[6] <= -0.124\ngini = 0.375\nsamples = 12\nvalue = [3, 9]"] ;
282 -> 283 ;
284 [label="gini = 0.0\nsamples = 3\nvalue = [0, 3]"] ;
283 -> 284 ;
285 [label="X[6] <= 0.532\ngini = 0.444\nsamples = 9\nvalue = [3, 6]"] ;
283 -> 285 ;
286 [label="X[18] <= -0.048\ngini = 0.444\nsamples = 3\nvalue = [2, 1]"] ;
285 -> 286 ;
287 [label="gini = 0.0\nsamples = 1\nvalue = [1, 0]"] ;
286 -> 287 ;
288 [label="X[5] <= 0.433\ngini = 0.5\nsamples = 2\nvalue = [1, 1]"] ;
286 -> 288 ;
289 [label="gini = 0.0\nsamples = 1\nvalue = [0, 1]"] ;
288 -> 289 ;
290 [label="gini = 0.0\nsamples = 1\nvalue = [1, 0]"] ;
288 -> 290 ;
291 [label="X[6] <= 1.189\ngini = 0.278\nsamples = 6\nvalue = [1, 5]"] ;
285 -> 291 ;
292 [label="gini = 0.0\nsamples = 4\nvalue = [0, 4]"] ;
291 -> 292 ;
293 [label="X[4] <= 1.181\ngini = 0.5\nsamples = 2\nvalue = [1, 1]"] ;
291 -> 293 ;
294 [label="gini = 0.0\nsamples = 1\nvalue = [0, 1]"] ;
293 -> 294 ;
295 [label="gini = 0.0\nsamples = 1\nvalue = [1, 0]"] ;
293 -> 295 ;
296 [label="gini = 0.0\nsamples = 1\nvalue = [1, 0]"] ;
282 -> 296 ;
297 [label="X[21] <= 0.989\ngini = 0.444\nsamples = 3\nvalue = [2, 1]"] ;
279 -> 297 ;
298 [label="X[19] <= 1.599\ngini = 0.5\nsamples = 2\nvalue = [1, 1]"] ;
297 -> 298 ;
299 [label="gini = 0.0\nsamples = 1\nvalue = [0, 1]"] ;
298 -> 299 ;
300 [label="gini = 0.0\nsamples = 1\nvalue = [1, 0]"] ;
298 -> 300 ;
301 [label="gini = 0.0\nsamples = 1\nvalue = [1, 0]"] ;
297 -> 301 ;
302 [label="X[10] <= 2.913\ngini = 0.444\nsamples = 3\nvalue = [2, 1]"] ;
278 -> 302 ;
303 [label="gini = 0.0\nsamples = 2\nvalue = [2, 0]"] ;
302 -> 303 ;
304 [label="gini = 0.0\nsamples = 1\nvalue = [0, 1]"] ;
302 -> 304 ;
305 [label="gini = 0.0\nsamples = 1\nvalue = [1, 0]"] ;
277 -> 305 ;
306 [label="gini = 0.0\nsamples = 1\nvalue = [1, 0]"] ;
276 -> 306 ;
307 [label="gini = 0.0\nsamples = 1\nvalue = [1, 0]"] ;
275 -> 307 ;
308 [label="X[41] <= 2.218\ngini = 0.238\nsamples = 29\nvalue = [4, 25]"] ;
274 -> 308 ;
309 [label="X[43] <= 3.828\ngini = 0.137\nsamples = 27\nvalue = [2, 25]"] ;
308 -> 309 ;
310 [label="X[29] <= 0.646\ngini = 0.074\nsamples = 26\nvalue = [1, 25]"] ;
309 -> 310 ;
311 [label="gini = 0.0\nsamples = 18\nvalue = [0, 18]"] ;
310 -> 311 ;
312 [label="X[18] <= -0.048\ngini = 0.219\nsamples = 8\nvalue = [1, 7]"] ;
310 -> 312 ;
313 [label="gini = 0.0\nsamples = 4\nvalue = [0, 4]"] ;
312 -> 313 ;
314 [label="X[5] <= 0.917\ngini = 0.375\nsamples = 4\nvalue = [1, 3]"] ;
312 -> 314 ;
315 [label="X[0] <= 0.819\ngini = 0.5\nsamples = 2\nvalue = [1, 1]"] ;
314 -> 315 ;
316 [label="gini = 0.0\nsamples = 1\nvalue = [1, 0]"] ;
315 -> 316 ;
317 [label="gini = 0.0\nsamples = 1\nvalue = [0, 1]"] ;
315 -> 317 ;
318 [label="gini = 0.0\nsamples = 2\nvalue = [0, 2]"] ;
314 -> 318 ;
319 [label="gini = 0.0\nsamples = 1\nvalue = [1, 0]"] ;
309 -> 319 ;
320 [label="gini = 0.0\nsamples = 2\nvalue = [2, 0]"] ;
308 -> 320 ;
321 [label="X[4] <= 1.181\ngini = 0.5\nsamples = 10\nvalue = [5, 5]"] ;
273 -> 321 ;
322 [label="X[18] <= -0.048\ngini = 0.408\nsamples = 7\nvalue = [5, 2]"] ;
321 -> 322 ;
323 [label="X[29] <= 0.646\ngini = 0.444\nsamples = 3\nvalue = [1, 2]"] ;
322 -> 323 ;
324 [label="gini = 0.0\nsamples = 2\nvalue = [0, 2]"] ;
323 -> 324 ;
325 [label="gini = 0.0\nsamples = 1\nvalue = [1, 0]"] ;
323 -> 325 ;
326 [label="gini = 0.0\nsamples = 4\nvalue = [4, 0]"] ;
322 -> 326 ;
327 [label="gini = 0.0\nsamples = 3\nvalue = [0, 3]"] ;
321 -> 327 ;
328 [label="X[25] <= 0.17\ngini = 0.49\nsamples = 7\nvalue = [4, 3]"] ;
272 -> 328 ;
329 [label="gini = 0.0\nsamples = 3\nvalue = [3, 0]"] ;
328 -> 329 ;
330 [label="X[43] <= 3.828\ngini = 0.375\nsamples = 4\nvalue = [1, 3]"] ;
328 -> 330 ;
331 [label="gini = 0.0\nsamples = 3\nvalue = [0, 3]"] ;
330 -> 331 ;
332 [label="gini = 0.0\nsamples = 1\nvalue = [1, 0]"] ;
330 -> 332 ;
333 [label="X[6] <= 1.189\ngini = 0.375\nsamples = 4\nvalue = [3, 1]"] ;
269 -> 333 ;
334 [label="gini = 0.0\nsamples = 3\nvalue = [3, 0]"] ;
333 -> 334 ;
335 [label="gini = 0.0\nsamples = 1\nvalue = [0, 1]"] ;
333 -> 335 ;
336 [label="gini = 0.0\nsamples = 2\nvalue = [2, 0]"] ;
268 -> 336 ;
337 [label="gini = 0.0\nsamples = 2\nvalue = [2, 0]"] ;
267 -> 337 ;
338 [label="X[23] <= 1.979\ngini = 0.492\nsamples = 16\nvalue = [9, 7]"] ;
266 -> 338 ;
339 [label="X[26] <= 0.224\ngini = 0.426\nsamples = 13\nvalue = [9, 4]"] ;
338 -> 339 ;
340 [label="gini = 0.0\nsamples = 2\nvalue = [0, 2]"] ;
339 -> 340 ;
341 [label="X[20] <= 2.039\ngini = 0.298\nsamples = 11\nvalue = [9, 2]"] ;
339 -> 341 ;
342 [label="X[21] <= 0.989\ngini = 0.18\nsamples = 10\nvalue = [9, 1]"] ;
341 -> 342 ;
343 [label="gini = 0.0\nsamples = 7\nvalue = [7, 0]"] ;
342 -> 343 ;
344 [label="X[0] <= 0.819\ngini = 0.444\nsamples = 3\nvalue = [2, 1]"] ;
342 -> 344 ;
345 [label="gini = 0.0\nsamples = 1\nvalue = [0, 1]"] ;
344 -> 345 ;
346 [label="gini = 0.0\nsamples = 2\nvalue = [2, 0]"] ;
344 -> 346 ;
347 [label="gini = 0.0\nsamples = 1\nvalue = [0, 1]"] ;
341 -> 347 ;
348 [label="gini = 0.0\nsamples = 3\nvalue = [0, 3]"] ;
338 -> 348 ;
349 [label="X[6] <= 0.532\ngini = 0.459\nsamples = 14\nvalue = [9, 5]"] ;
265 -> 349 ;
350 [label="gini = 0.0\nsamples = 5\nvalue = [5, 0]"] ;
349 -> 350 ;
351 [label="X[25] <= 0.17\ngini = 0.494\nsamples = 9\nvalue = [4, 5]"] ;
349 -> 351 ;
352 [label="X[43] <= 3.828\ngini = 0.32\nsamples = 5\nvalue = [1, 4]"] ;
351 -> 352 ;
353 [label="gini = 0.0\nsamples = 4\nvalue = [0, 4]"] ;
352 -> 353 ;
354 [label="gini = 0.0\nsamples = 1\nvalue = [1, 0]"] ;
352 -> 354 ;
355 [label="X[4] <= 0.514\ngini = 0.375\nsamples = 4\nvalue = [3, 1]"] ;
351 -> 355 ;
356 [label="gini = 0.0\nsamples = 1\nvalue = [0, 1]"] ;
355 -> 356 ;
357 [label="gini = 0.0\nsamples = 3\nvalue = [3, 0]"] ;
355 -> 357 ;
358 [label="X[0] <= 0.388\ngini = 0.483\nsamples = 49\nvalue = [29, 20]"] ;
246 -> 358 ;
359 [label="gini = 0.0\nsamples = 5\nvalue = [0, 5]"] ;
358 -> 359 ;
360 [label="X[11] <= 0.145\ngini = 0.449\nsamples = 44\nvalue = [29, 15]"] ;
358 -> 360 ;
361 [label="gini = 0.0\nsamples = 9\nvalue = [9, 0]"] ;
360 -> 361 ;
362 [label="X[7] <= 2.501\ngini = 0.49\nsamples = 35\nvalue = [20, 15]"] ;
360 -> 362 ;
363 [label="X[5] <= 0.433\ngini = 0.469\nsamples = 32\nvalue = [20, 12]"] ;
362 -> 363 ;
364 [label="X[0] <= 1.251\ngini = 0.408\nsamples = 7\nvalue = [2, 5]"] ;
363 -> 364 ;
365 [label="gini = 0.0\nsamples = 4\nvalue = [0, 4]"] ;
364 -> 365 ;
366 [label="X[18] <= -0.048\ngini = 0.444\nsamples = 3\nvalue = [2, 1]"] ;
364 -> 366 ;
367 [label="gini = 0.0\nsamples = 1\nvalue = [0, 1]"] ;
366 -> 367 ;
368 [label="gini = 0.0\nsamples = 2\nvalue = [2, 0]"] ;
366 -> 368 ;
369 [label="X[9] <= 0.238\ngini = 0.403\nsamples = 25\nvalue = [18, 7]"] ;
363 -> 369 ;
370 [label="X[32] <= 1.187\ngini = 0.18\nsamples = 10\nvalue = [9, 1]"] ;
369 -> 370 ;
371 [label="gini = 0.0\nsamples = 8\nvalue = [8, 0]"] ;
370 -> 371 ;
372 [label="X[17] <= 0.106\ngini = 0.5\nsamples = 2\nvalue = [1, 1]"] ;
370 -> 372 ;
373 [label="gini = 0.0\nsamples = 1\nvalue = [1, 0]"] ;
372 -> 373 ;
374 [label="gini = 0.0\nsamples = 1\nvalue = [0, 1]"] ;
372 -> 374 ;
375 [label="X[26] <= 0.224\ngini = 0.48\nsamples = 15\nvalue = [9, 6]"] ;
369 -> 375 ;
376 [label="gini = 0.0\nsamples = 2\nvalue = [0, 2]"] ;
375 -> 376 ;
377 [label="X[32] <= 1.187\ngini = 0.426\nsamples = 13\nvalue = [9, 4]"] ;
375 -> 377 ;
378 [label="X[25] <= 0.17\ngini = 0.375\nsamples = 12\nvalue = [9, 3]"] ;
377 -> 378 ;
379 [label="X[45] <= 1.55\ngini = 0.198\nsamples = 9\nvalue = [8, 1]"] ;
378 -> 379 ;
380 [label="gini = 0.0\nsamples = 8\nvalue = [8, 0]"] ;
379 -> 380 ;
381 [label="gini = 0.0\nsamples = 1\nvalue = [0, 1]"] ;
379 -> 381 ;
382 [label="X[21] <= 0.989\ngini = 0.444\nsamples = 3\nvalue = [1, 2]"] ;
378 -> 382 ;
383 [label="gini = 0.0\nsamples = 2\nvalue = [0, 2]"] ;
382 -> 383 ;
384 [label="gini = 0.0\nsamples = 1\nvalue = [1, 0]"] ;
382 -> 384 ;
385 [label="gini = 0.0\nsamples = 1\nvalue = [0, 1]"] ;
377 -> 385 ;
386 [label="gini = 0.0\nsamples = 3\nvalue = [0, 3]"] ;
362 -> 386 ;
387 [label="gini = 0.0\nsamples = 4\nvalue = [0, 4]"] ;
245 -> 387 ;
388 [label="gini = 0.0\nsamples = 5\nvalue = [0, 5]"] ;
244 -> 388 ;
389 [label="X[24] <= 1.581\ngini = 0.395\nsamples = 59\nvalue = [16, 43]"] ;
243 -> 389 ;
390 [label="X[8] <= 1.081\ngini = 0.371\nsamples = 57\nvalue = [14, 43]"] ;
389 -> 390 ;
391 [label="X[39] <= 3.317\ngini = 0.31\nsamples = 47\nvalue = [9, 38]"] ;
390 -> 391 ;
392 [label="X[0] <= 0.1\ngini = 0.273\nsamples = 43\nvalue = [7, 36]"] ;
391 -> 392 ;
393 [label="X[29] <= 0.646\ngini = 0.48\nsamples = 5\nvalue = [2, 3]"] ;
392 -> 393 ;
394 [label="gini = 0.0\nsamples = 3\nvalue = [0, 3]"] ;
393 -> 394 ;
395 [label="gini = 0.0\nsamples = 2\nvalue = [2, 0]"] ;
393 -> 395 ;
396 [label="X[0] <= 1.251\ngini = 0.229\nsamples = 38\nvalue = [5, 33]"] ;
392 -> 396 ;
397 [label="X[71] <= 5.437\ngini = 0.198\nsamples = 36\nvalue = [4, 32]"] ;
396 -> 397 ;
398 [label="X[25] <= 0.17\ngini = 0.161\nsamples = 34\nvalue = [3, 31]"] ;
397 -> 398 ;
399 [label="gini = 0.0\nsamples = 20\nvalue = [0, 20]"] ;
398 -> 399 ;
400 [label="X[0] <= 0.388\ngini = 0.337\nsamples = 14\nvalue = [3, 11]"] ;
398 -> 400 ;
401 [label="gini = 0.0\nsamples = 4\nvalue = [0, 4]"] ;
400 -> 401 ;
402 [label="X[9] <= 0.238\ngini = 0.42\nsamples = 10\nvalue = [3, 7]"] ;
400 -> 402 ;
403 [label="X[57] <= 2.152\ngini = 0.219\nsamples = 8\nvalue = [1, 7]"] ;
402 -> 403 ;
404 [label="gini = 0.0\nsamples = 7\nvalue = [0, 7]"] ;
403 -> 404 ;
405 [label="gini = 0.0\nsamples = 1\nvalue = [1, 0]"] ;
403 -> 405 ;
406 [label="gini = 0.0\nsamples = 2\nvalue = [2, 0]"] ;
402 -> 406 ;
407 [label="X[9] <= 1.741\ngini = 0.5\nsamples = 2\nvalue = [1, 1]"] ;
397 -> 407 ;
408 [label="gini = 0.0\nsamples = 1\nvalue = [1, 0]"] ;
407 -> 408 ;
409 [label="gini = 0.0\nsamples = 1\nvalue = [0, 1]"] ;
407 -> 409 ;
410 [label="X[38] <= 2.738\ngini = 0.5\nsamples = 2\nvalue = [1, 1]"] ;
396 -> 410 ;
411 [label="gini = 0.0\nsamples = 1\nvalue = [0, 1]"] ;
410 -> 411 ;
412 [label="gini = 0.0\nsamples = 1\nvalue = [1, 0]"] ;
410 -> 412 ;
413 [label="X[4] <= 1.181\ngini = 0.5\nsamples = 4\nvalue = [2, 2]"] ;
391 -> 413 ;
414 [label="gini = 0.0\nsamples = 1\nvalue = [1, 0]"] ;
413 -> 414 ;
415 [label="X[0] <= 0.819\ngini = 0.444\nsamples = 3\nvalue = [1, 2]"] ;
413 -> 415 ;
416 [label="gini = 0.0\nsamples = 2\nvalue = [0, 2]"] ;
415 -> 416 ;
417 [label="gini = 0.0\nsamples = 1\nvalue = [1, 0]"] ;
415 -> 417 ;
418 [label="X[11] <= 0.145\ngini = 0.5\nsamples = 10\nvalue = [5, 5]"] ;
390 -> 418 ;
419 [label="gini = 0.0\nsamples = 3\nvalue = [3, 0]"] ;
418 -> 419 ;
420 [label="X[21] <= 0.989\ngini = 0.408\nsamples = 7\nvalue = [2, 5]"] ;
418 -> 420 ;
421 [label="gini = 0.0\nsamples = 5\nvalue = [0, 5]"] ;
420 -> 421 ;
422 [label="gini = 0.0\nsamples = 2\nvalue = [2, 0]"] ;
420 -> 422 ;
423 [label="gini = 0.0\nsamples = 2\nvalue = [2, 0]"] ;
389 -> 423 ;
424 [label="X[0] <= 0.388\ngini = 0.42\nsamples = 30\nvalue = [21, 9]"] ;
242 -> 424 ;
425 [label="X[28] <= 2.957\ngini = 0.48\nsamples = 5\nvalue = [2, 3]"] ;
424 -> 425 ;
426 [label="X[8] <= 1.081\ngini = 0.444\nsamples = 3\nvalue = [2, 1]"] ;
425 -> 426 ;
427 [label="gini = 0.0\nsamples = 2\nvalue = [2, 0]"] ;
426 -> 427 ;
428 [label="gini = 0.0\nsamples = 1\nvalue = [0, 1]"] ;
426 -> 428 ;
429 [label="gini = 0.0\nsamples = 2\nvalue = [0, 2]"] ;
425 -> 429 ;
430 [label="X[20] <= 2.039\ngini = 0.365\nsamples = 25\nvalue = [19, 6]"] ;
424 -> 430 ;
431 [label="X[15] <= -2.85\ngini = 0.33\nsamples = 24\nvalue = [19, 5]"] ;
430 -> 431 ;
432 [label="gini = 0.0\nsamples = 1\nvalue = [0, 1]"] ;
431 -> 432 ;
433 [label="X[31] <= 2.174\ngini = 0.287\nsamples = 23\nvalue = [19, 4]"] ;
431 -> 433 ;
434 [label="X[67] <= 4.539\ngini = 0.236\nsamples = 22\nvalue = [19, 3]"] ;
433 -> 434 ;
435 [label="X[27] <= 0.061\ngini = 0.172\nsamples = 21\nvalue = [19, 2]"] ;
434 -> 435 ;
436 [label="X[40] <= 2.926\ngini = 0.1\nsamples = 19\nvalue = [18, 1]"] ;
435 -> 436 ;
437 [label="gini = 0.0\nsamples = 17\nvalue = [17, 0]"] ;
436 -> 437 ;
438 [label="X[24] <= 1.581\ngini = 0.5\nsamples = 2\nvalue = [1, 1]"] ;
436 -> 438 ;
439 [label="gini = 0.0\nsamples = 1\nvalue = [0, 1]"] ;
438 -> 439 ;
440 [label="gini = 0.0\nsamples = 1\nvalue = [1, 0]"] ;
438 -> 440 ;
441 [label="X[5] <= 0.756\ngini = 0.5\nsamples = 2\nvalue = [1, 1]"] ;
435 -> 441 ;
442 [label="gini = 0.0\nsamples = 1\nvalue = [0, 1]"] ;
441 -> 442 ;
443 [label="gini = 0.0\nsamples = 1\nvalue = [1, 0]"] ;
441 -> 443 ;
444 [label="gini = 0.0\nsamples = 1\nvalue = [0, 1]"] ;
434 -> 444 ;
445 [label="gini = 0.0\nsamples = 1\nvalue = [0, 1]"] ;
433 -> 445 ;
446 [label="gini = 0.0\nsamples = 1\nvalue = [0, 1]"] ;
430 -> 446 ;
447 [label="X[1] <= 1.924\ngini = 0.391\nsamples = 30\nvalue = [22, 8]"] ;
241 -> 447 ;
448 [label="X[0] <= 0.819\ngini = 0.337\nsamples = 28\nvalue = [22, 6]"] ;
447 -> 448 ;
449 [label="X[13] <= 0.702\ngini = 0.432\nsamples = 19\nvalue = [13, 6]"] ;
448 -> 449 ;
450 [label="X[5] <= 1.401\ngini = 0.48\nsamples = 15\nvalue = [9, 6]"] ;
449 -> 450 ;
451 [label="X[4] <= -0.152\ngini = 0.426\nsamples = 13\nvalue = [9, 4]"] ;
450 -> 451 ;
452 [label="gini = 0.0\nsamples = 1\nvalue = [0, 1]"] ;
451 -> 452 ;
453 [label="X[6] <= 1.189\ngini = 0.375\nsamples = 12\nvalue = [9, 3]"] ;
451 -> 453 ;
454 [label="X[5] <= 0.756\ngini = 0.444\nsamples = 9\nvalue = [6, 3]"] ;
453 -> 454 ;
455 [label="gini = 0.0\nsamples = 3\nvalue = [3, 0]"] ;
454 -> 455 ;
456 [label="X[25] <= 0.842\ngini = 0.5\nsamples = 6\nvalue = [3, 3]"] ;
454 -> 456 ;
457 [label="X[0] <= 0.244\ngini = 0.375\nsamples = 4\nvalue = [1, 3]"] ;
456 -> 457 ;
458 [label="X[4] <= 1.181\ngini = 0.5\nsamples = 2\nvalue = [1, 1]"] ;
457 -> 458 ;
459 [label="gini = 0.0\nsamples = 1\nvalue = [0, 1]"] ;
458 -> 459 ;
460 [label="gini = 0.0\nsamples = 1\nvalue = [1, 0]"] ;
458 -> 460 ;
461 [label="gini = 0.0\nsamples = 2\nvalue = [0, 2]"] ;
457 -> 461 ;
462 [label="gini = 0.0\nsamples = 2\nvalue = [2, 0]"] ;
456 -> 462 ;
463 [label="gini = 0.0\nsamples = 3\nvalue = [3, 0]"] ;
453 -> 463 ;
464 [label="gini = 0.0\nsamples = 2\nvalue = [0, 2]"] ;
450 -> 464 ;
465 [label="gini = 0.0\nsamples = 4\nvalue = [4, 0]"] ;
449 -> 465 ;
466 [label="gini = 0.0\nsamples = 9\nvalue = [9, 0]"] ;
448 -> 466 ;
467 [label="gini = 0.0\nsamples = 2\nvalue = [0, 2]"] ;
447 -> 467 ;
468 [label="X[8] <= 1.081\ngini = 0.343\nsamples = 223\nvalue = [174, 49]"] ;
28 -> 468 ;
469 [label="X[56] <= 4.081\ngini = 0.462\nsamples = 105\nvalue = [67, 38]"] ;
468 -> 469 ;
470 [label="X[3] <= 5.824\ngini = 0.444\nsamples = 99\nvalue = [66, 33]"] ;
469 -> 470 ;
471 [label="X[26] <= 0.224\ngini = 0.43\nsamples = 96\nvalue = [66, 30]"] ;
470 -> 471 ;
472 [label="X[6] <= -0.781\ngini = 0.355\nsamples = 65\nvalue = [50, 15]"] ;
471 -> 472 ;
473 [label="X[0] <= 1.826\ngini = 0.439\nsamples = 43\nvalue = [29, 14]"] ;
472 -> 473 ;
474 [label="X[31] <= 2.174\ngini = 0.266\nsamples = 19\nvalue = [16, 3]"] ;
473 -> 474 ;
475 [label="X[32] <= 1.187\ngini = 0.198\nsamples = 18\nvalue = [16, 2]"] ;
474 -> 475 ;
476 [label="X[82] <= 8.457\ngini = 0.111\nsamples = 17\nvalue = [16, 1]"] ;
475 -> 476 ;
477 [label="gini = 0.0\nsamples = 16\nvalue = [16, 0]"] ;
476 -> 477 ;
478 [label="gini = 0.0\nsamples = 1\nvalue = [0, 1]"] ;
476 -> 478 ;
479 [label="gini = 0.0\nsamples = 1\nvalue = [0, 1]"] ;
475 -> 479 ;
480 [label="gini = 0.0\nsamples = 1\nvalue = [0, 1]"] ;
474 -> 480 ;
481 [label="X[27] <= 0.061\ngini = 0.497\nsamples = 24\nvalue = [13, 11]"] ;
473 -> 481 ;
482 [label="gini = 0.0\nsamples = 3\nvalue = [3, 0]"] ;
481 -> 482 ;
483 [label="X[9] <= 4.745\ngini = 0.499\nsamples = 21\nvalue = [10, 11]"] ;
481 -> 483 ;
484 [label="X[9] <= 0.238\ngini = 0.475\nsamples = 18\nvalue = [7, 11]"] ;
483 -> 484 ;
485 [label="gini = 0.0\nsamples = 2\nvalue = [2, 0]"] ;
484 -> 485 ;
486 [label="X[9] <= 1.741\ngini = 0.43\nsamples = 16\nvalue = [5, 11]"] ;
484 -> 486 ;
487 [label="gini = 0.0\nsamples = 6\nvalue = [0, 6]"] ;
486 -> 487 ;
488 [label="X[5] <= -0.858\ngini = 0.5\nsamples = 10\nvalue = [5, 5]"] ;
486 -> 488 ;
489 [label="X[4] <= -0.818\ngini = 0.32\nsamples = 5\nvalue = [4, 1]"] ;
488 -> 489 ;
490 [label="gini = 0.0\nsamples = 4\nvalue = [4, 0]"] ;
489 -> 490 ;
491 [label="gini = 0.0\nsamples = 1\nvalue = [0, 1]"] ;
489 -> 491 ;
492 [label="X[16] <= -0.707\ngini = 0.32\nsamples = 5\nvalue = [1, 4]"] ;
488 -> 492 ;
493 [label="gini = 0.0\nsamples = 1\nvalue = [1, 0]"] ;
492 -> 493 ;
494 [label="gini = 0.0\nsamples = 4\nvalue = [0, 4]"] ;
492 -> 494 ;
495 [label="gini = 0.0\nsamples = 3\nvalue = [3, 0]"] ;
483 -> 495 ;
496 [label="X[15] <= -2.85\ngini = 0.087\nsamples = 22\nvalue = [21, 1]"] ;
472 -> 496 ;
497 [label="gini = 0.0\nsamples = 1\nvalue = [0, 1]"] ;
496 -> 497 ;
498 [label="gini = 0.0\nsamples = 21\nvalue = [21, 0]"] ;
496 -> 498 ;
499 [label="X[0] <= 2.689\ngini = 0.499\nsamples = 31\nvalue = [16, 15]"] ;
471 -> 499 ;
500 [label="X[5] <= 1.401\ngini = 0.497\nsamples = 28\nvalue = [13, 15]"] ;
499 -> 500 ;
501 [label="X[69] <= 6.978\ngini = 0.491\nsamples = 23\nvalue = [13, 10]"] ;
500 -> 501 ;
502 [label="X[18] <= -0.048\ngini = 0.472\nsamples = 21\nvalue = [13, 8]"] ;
501 -> 502 ;
503 [label="X[21] <= 0.989\ngini = 0.32\nsamples = 10\nvalue = [8, 2]"] ;
502 -> 503 ;
504 [label="gini = 0.0\nsamples = 7\nvalue = [7, 0]"] ;
503 -> 504 ;
505 [label="X[5] <= 0.756\ngini = 0.444\nsamples = 3\nvalue = [1, 2]"] ;
503 -> 505 ;
506 [label="gini = 0.0\nsamples = 1\nvalue = [1, 0]"] ;
505 -> 506 ;
507 [label="gini = 0.0\nsamples = 2\nvalue = [0, 2]"] ;
505 -> 507 ;
508 [label="X[11] <= 1.56\ngini = 0.496\nsamples = 11\nvalue = [5, 6]"] ;
502 -> 508 ;
509 [label="X[23] <= 1.979\ngini = 0.469\nsamples = 8\nvalue = [5, 3]"] ;
508 -> 509 ;
510 [label="X[6] <= 1.189\ngini = 0.408\nsamples = 7\nvalue = [5, 2]"] ;
509 -> 510 ;
511 [label="X[29] <= 0.646\ngini = 0.278\nsamples = 6\nvalue = [5, 1]"] ;
510 -> 511 ;
512 [label="gini = 0.0\nsamples = 5\nvalue = [5, 0]"] ;
511 -> 512 ;
513 [label="gini = 0.0\nsamples = 1\nvalue = [0, 1]"] ;
511 -> 513 ;
514 [label="gini = 0.0\nsamples = 1\nvalue = [0, 1]"] ;
510 -> 514 ;
515 [label="gini = 0.0\nsamples = 1\nvalue = [0, 1]"] ;
509 -> 515 ;
516 [label="gini = 0.0\nsamples = 3\nvalue = [0, 3]"] ;
508 -> 516 ;
517 [label="gini = 0.0\nsamples = 2\nvalue = [0, 2]"] ;
501 -> 517 ;
518 [label="gini = 0.0\nsamples = 5\nvalue = [0, 5]"] ;
500 -> 518 ;
519 [label="gini = 0.0\nsamples = 3\nvalue = [3, 0]"] ;
499 -> 519 ;
520 [label="gini = 0.0\nsamples = 3\nvalue = [0, 3]"] ;
470 -> 520 ;
521 [label="X[11] <= 1.56\ngini = 0.278\nsamples = 6\nvalue = [1, 5]"] ;
469 -> 521 ;
522 [label="gini = 0.0\nsamples = 1\nvalue = [1, 0]"] ;
521 -> 522 ;
523 [label="gini = 0.0\nsamples = 5\nvalue = [0, 5]"] ;
521 -> 523 ;
524 [label="X[33] <= 2.603\ngini = 0.169\nsamples = 118\nvalue = [107, 11]"] ;
468 -> 524 ;
525 [label="X[49] <= 6.632\ngini = 0.156\nsamples = 117\nvalue = [107, 10]"] ;
524 -> 525 ;
526 [label="X[40] <= 2.926\ngini = 0.143\nsamples = 116\nvalue = [107, 9]"] ;
525 -> 526 ;
527 [label="X[70] <= 4.65\ngini = 0.118\nsamples = 111\nvalue = [104, 7]"] ;
526 -> 527 ;
528 [label="X[3] <= 2.339\ngini = 0.091\nsamples = 105\nvalue = [100, 5]"] ;
527 -> 528 ;
529 [label="X[25] <= 0.842\ngini = 0.075\nsamples = 103\nvalue = [99, 4]"] ;
528 -> 529 ;
530 [label="X[0] <= 1.826\ngini = 0.042\nsamples = 93\nvalue = [91, 2]"] ;
529 -> 530 ;
531 [label="X[60] <= 2.807\ngini = 0.165\nsamples = 22\nvalue = [20, 2]"] ;
530 -> 531 ;
532 [label="X[32] <= 1.187\ngini = 0.091\nsamples = 21\nvalue = [20, 1]"] ;
531 -> 532 ;
533 [label="gini = 0.0\nsamples = 19\nvalue = [19, 0]"] ;
532 -> 533 ;
534 [label="X[4] <= 0.514\ngini = 0.5\nsamples = 2\nvalue = [1, 1]"] ;
532 -> 534 ;
535 [label="gini = 0.0\nsamples = 1\nvalue = [0, 1]"] ;
534 -> 535 ;
536 [label="gini = 0.0\nsamples = 1\nvalue = [1, 0]"] ;
534 -> 536 ;
537 [label="gini = 0.0\nsamples = 1\nvalue = [0, 1]"] ;
531 -> 537 ;
538 [label="gini = 0.0\nsamples = 71\nvalue = [71, 0]"] ;
530 -> 538 ;
539 [label="X[9] <= 1.741\ngini = 0.32\nsamples = 10\nvalue = [8, 2]"] ;
529 -> 539 ;
540 [label="gini = 0.0\nsamples = 7\nvalue = [7, 0]"] ;
539 -> 540 ;
541 [label="X[29] <= 0.646\ngini = 0.444\nsamples = 3\nvalue = [1, 2]"] ;
539 -> 541 ;
542 [label="gini = 0.0\nsamples = 2\nvalue = [0, 2]"] ;
541 -> 542 ;
543 [label="gini = 0.0\nsamples = 1\nvalue = [1, 0]"] ;
541 -> 543 ;
544 [label="X[6] <= 0.204\ngini = 0.5\nsamples = 2\nvalue = [1, 1]"] ;
528 -> 544 ;
545 [label="gini = 0.0\nsamples = 1\nvalue = [0, 1]"] ;
544 -> 545 ;
546 [label="gini = 0.0\nsamples = 1\nvalue = [1, 0]"] ;
544 -> 546 ;
547 [label="X[0] <= 2.402\ngini = 0.444\nsamples = 6\nvalue = [4, 2]"] ;
527 -> 547 ;
548 [label="X[26] <= 0.224\ngini = 0.444\nsamples = 3\nvalue = [1, 2]"] ;
547 -> 548 ;
549 [label="gini = 0.0\nsamples = 2\nvalue = [0, 2]"] ;
548 -> 549 ;
550 [label="gini = 0.0\nsamples = 1\nvalue = [1, 0]"] ;
548 -> 550 ;
551 [label="gini = 0.0\nsamples = 3\nvalue = [3, 0]"] ;
547 -> 551 ;
552 [label="X[11] <= 1.56\ngini = 0.48\nsamples = 5\nvalue = [3, 2]"] ;
526 -> 552 ;
553 [label="X[7] <= 2.501\ngini = 0.375\nsamples = 4\nvalue = [3, 1]"] ;
552 -> 553 ;
554 [label="gini = 0.0\nsamples = 3\nvalue = [3, 0]"] ;
553 -> 554 ;
555 [label="gini = 0.0\nsamples = 1\nvalue = [0, 1]"] ;
553 -> 555 ;
556 [label="gini = 0.0\nsamples = 1\nvalue = [0, 1]"] ;
552 -> 556 ;
557 [label="gini = 0.0\nsamples = 1\nvalue = [0, 1]"] ;
525 -> 557 ;
558 [label="gini = 0.0\nsamples = 1\nvalue = [0, 1]"] ;
524 -> 558 ;
}